svm_type c_svc
kernel_type rbf
gamma 0.16666666666666666
nr_class 3
total_sv 59
rho -0.21014129173257026 -0.70010567860816708 -0.58244194359595192
label 1 -1 0
nr_sv 26 22 11
SV
0.77671160629347247 0.29476457360280994 1:6.1679389 2:9.0076336 3:0.24427481 4:1.0827637 5:0.0029296875 6:0.34472656 
0.43149306354442923 0.16359835381065929 1:16.251908 2:-2.4122137 3:1.4045802 4:0.94506836 5:-0.090332031 6:0.73510742 
0.61008873007860587 0.23191078926389108 1:27.885496 2:-10.175573 3:1.3969466 4:1.0314941 5:-0.49023438 6:0.68017578 
0.2830520037364786 0.089133588453269172 1:4.4885496 2:3.8854962 3:0.13740458 4:1.0881348 5:0.085449219 6:0.62109375 
0.5466948694458873 0.20776818548210141 1:14.694656 2:-3.8473282 3:0.90076336 4:1.0288086 5:-0.14013672 6:0.64746094 
0.70040810753326166 0.26637572883383687 1:26.740458 2:-13.854962 3:1.5572519 4:0.95507813 5:-0.30371094 6:0.58935547 
0.40593849853561781 0.15515010611249308 1:23.236641 2:-0.92366412 3:-0.053435115 4:1.0861816 5:-0.47485352 6:-0.24926758 
0.45950898180390143 0.17965864783370256 1:9.1068702 2:-1.4427481 3:1.8473282 4:0.90917969 5:0.18554688 6:0.66333008 
0.33236077260028934 0.126686858672135 1:19.29771 2:1.1908397 3:0.38931298 4:0.57104492 5:-0.40625 6:1.2666016 
0.44643276486974259 0.16982264846377665 1:26.687023 2:-1.3358779 3:-0.89312977 4:0.79370117 5:-0.5222168 6:0.56103516 
0.19720998620594146 0.074211538774322128 1:19.854962 2:1.8625954 3:-0.44274809 4:1.0541992 5:-0.30688477 6:-0.015869141 
0.55693450435579173 0.2113168773645748 1:13.48855 2:-0.32824427 3:-0.75572519 4:1.0310059 5:-0.15356445 6:-0.13037109 
0.49402186951826493 0.20599333546001575 1:4.4274809 2:4.5343511 3:0.11450382 4:1.119873 5:0.057128906 6:0.39990234 
0.61814187463419334 0.2345078743566639 1:21.618321 2:3.1068702 3:1.2748092 4:0.86303711 5:-0.15112305 6:0.48901367 
0.23242375473179028 0.074935533344820754 1:10.183206 2:-1.7175573 3:0.33587786 4:1.0361328 5:0.01953125 6:0.51123047 
0.078758068790438812 0.029358344078255764 1:26.175573 2:-11.267176 3:1.5877863 4:0.77001953 5:-0.28271484 6:0.84619141 
0.28839241375965063 0.10843567025709713 1:24.503817 2:-1.7938931 3:0.25954198 4:0.97192383 5:-0.53515625 6:-0.0085449219 
0.23388122882211992 0.097931504277402229 1:8.1374046 2:-1.8167939 3:-0.41984733 4:1.0588379 5:-0.076416016 6:0.010009766 
0.52469843488298606 0.19868789912380341 1:26.320611 2:0.90839695 3:-0.6870229 4:0.83251953 5:-0.40795898 6:-0.066894531 
0.22041478243887747 0.083442141358259392 1:16.129771 2:0.030534351 3:-0.5648855 4:1.0187988 5:-0.26147461 6:0.010986328 
0.21810131840272426 0.13147581418497545 1:8.9694656 2:-0.14503817 3:-0.33587786 4:1.0527344 5:-0.095214844 6:-0.034423828 
0.52147175476263297 0.19844995435417756 1:15.778626 2:1.5954198 3:0.69465649 4:0.8671875 5:-0.17993164 6:0.51855469 
0.6766080766374537 0.25750375108912726 1:25.007634 2:-9.8015267 3:3.3816794 4:1.232666 5:-0.43774414 6:0.24023438 
0.28761952941570734 0.10935585891752171 1:20.450382 2:0.36641221 3:-0.06870229 4:1.2121582 5:-0.31933594 6:0.0085449219 
0.23421646294892329 0 1:7.4656489 2:-0.32824427 3:-0.35114504 4:1.0412598 5:-0.091064453 6:-0.028564453 
0.70753713245408023 0.85385274820095747 1:4.1374046 2:-0.14503817 3:-0.45801527 4:1.0187988 5:-0.038330078 6:0.097412109 
-0.22505524266990004 0.096448103424172704 1:-9.4656489 2:-0.20610687 3:-0.52671756 4:1.0744629 5:-0.080566406 6:-0.031982422 
-0.89709059588324946 0.30942278106071242 1:-23.389313 2:0.26717557 3:-0.4351145 4:1.0498047 5:-0.33984375 6:0.15307617 
-0.77157609985416342 0.2668979038988803 1:-15.114504 2:-1.9312977 3:-0.3129771 4:1.0478516 5:-0.10791016 6:0.58740234 
-0.25147856919548806 0 1:-7.6412214 2:-0.90839695 3:-0.19847328 4:1.0437012 5:-0.009765625 6:0.45556641 
-0.1364724019016359 0 1:-6.5114504 2:0.22900763 3:-0.24427481 4:1.0441895 5:-0.050537109 6:-0.059814453 
-0.53027293241839646 0.18372987424427531 1:-13.89313 2:0.70229008 3:-0.46564885 4:1.0473633 5:-0.16088867 6:-0.076171875 
-0.77515184894653155 0.26725029531024735 1:-20.969466 2:-0.29007634 3:1.7328244 4:1.0754395 5:-0.30786133 6:-0.0078125 
-0.67477690166178128 0.22984530813359488 1:-11.320611 2:0.42748092 3:-2.6030534 4:0.35180664 5:-0.019775391 6:0.82592773 
-0.47762661591794975 1 1:-3.5114504 2:0.24427481 3:-0.41984733 4:1.0505371 5:-0.047363281 6:-0.055664063 
-0.71102563763691062 0.24528899733383708 1:-21.328244 2:-1.9160305 3:-0.50381679 4:1.0161133 5:-0.30883789 6:0.234375 
-0.22508875627431221 0.076571950291564467 1:-12.335878 2:-0.85496183 3:-0.32061069 4:1.7751465 5:-0.08203125 6:1.1186523 
-0.83212205874245981 0.21521583553043572 1:-4.7480916 2:1.9236641 3:-0.41221374 4:1.0400391 5:-0.036865234 6:-0.049560547 
-0 0.28085252308745073 1:-3.9236641 2:-0.16793893 3:0.091603053 4:1.032959 5:-0.040283203 6:-0.022216797 
-0.019157554392016399 0.0064472171999629731 1:-16.648855 2:-0.28244275 3:-0.25954198 4:1.048584 5:-0.18896484 6:0.013427734 
-0.12231728346175418 0.043265960378043082 1:-19.091603 2:1.778626 3:-1.0076336 4:1.1411133 5:-0.2121582 6:0.40307617 
-0.81707046196049704 0.2791695567118378 1:-11.122137 2:-2.3053435 3:0.076335878 4:0.9831543 5:-0.045898438 6:0.56518555 
-0.4282286777859648 0.14834753117272706 1:-18.022901 2:-0.46564885 3:-0.51908397 4:1.0380859 5:-0.22265625 6:0.063232422 
-0.30618526637221799 0.10462295641143045 1:-16.198473 2:0.1221374 3:-0.69465649 4:1.0397949 5:-0.20336914 6:0.57788086 
-0.88172703287680287 0.37769610748139121 1:-4.6183206 2:-2.1450382 3:-0.26717557 4:0.93334961 5:-0.077636719 6:0.1796875 
-0.43703472621777778 0.2080146193647143 1:-7.8778626 2:-0.83969466 3:-0.35877863 4:1.0214844 5:0 6:0.53393555 
-0.7446371376192189 0.25517495518885946 1:-11.374046 2:2.1908397 3:-1.389313 4:1.0493164 5:-0.12255859 6:-0.10644531 
-0.81902478941423429 0.28162715524956022 1:-19.10687 2:1.7480916 3:-1.4885496 4:1.0471191 5:-0.28881836 6:0.043945313 
-0 -0.038402674867090709 1:0.015267176 2:1.7557252 3:-0.65648855 4:1.1987305 5:0.073486328 6:0.22753906 
-1 -1 1:-1.9236641 2:1.8854962 3:-0.48091603 4:1.0546875 5:0.014160156 6:0.22387695 
-0.0012835205801980942 -0 1:-0.42748092 2:1.9083969 3:-0.091603053 4:1.0454102 5:-0.011474609 6:0.23535156 
-0.43362735812947545 -0.051884671821994008 1:1.6564885 2:-0.053435115 3:-0.32061069 4:1.045166 5:-0.0061035156 6:0.23120117 
-0.27498865615930573 -0.16025364155496546 1:0.022900763 2:-0.053435115 3:-1.7709924 4:1.0334473 5:-0.0078125 6:0.21948242 
-0.49262558460967543 -0.30524929659606459 1:-0.29007634 2:1.9465649 3:-0.34351145 4:1.0500488 5:-0.0026855469 6:0.22290039 
-0 -0.96722545245526037 1:-1.9312977 2:-0.0076335878 3:-0.30534351 4:1.0424805 5:-0.0024414063 6:0.22412109 
-1 -1 1:-1.8473282 2:-1.9160305 3:-0.28244275 4:1.0456543 5:-0.0012207031 6:0.23681641 
-0.46274581384295277 -0.34309911812994431 1:0.1221374 2:-1.9465649 3:-0.26717557 4:1.0483398 5:0.014648438 6:0.21606445 
-0.089057392349042225 -0.009774776048378158 1:-1.8854962 2:-0.099236641 3:-0.0076335878 4:1.0478516 5:0.00024414063 6:0.22558594 
-1 -1 1:1.7175573 2:-0.12977099 3:-0.41221374 4:1.0427246 5:-0.0065917969 6:0.23364258 
