svm_type c_svc
kernel_type rbf
gamma 0.16666666666666666
nr_class 3
total_sv 105
rho -0.25524574756349133 -0.79988564231927961 -0.65840599914017306
label 1 -1 0
nr_sv 48 28 29
SV
0.2453378970419488 0.15201998104440559 1:1.8473282 2:0.038167939 3:-1.9465649 4:1.0476074 5:-0.0017089844 6:0.21630859 
0 0.46457883955274248 1:1.5801527 2:1.8396947 3:-0.5648855 4:1.0334473 5:-0.0012207031 6:0.21582031 
0.73568888303347557 0.19736065605903819 1:6.1679389 2:9.0076336 3:0.24427481 4:1.0827637 5:0.0029296875 6:0.34472656 
0.40705871232518953 0.10994080619671809 1:16.251908 2:-2.4122137 3:1.4045802 4:0.94506836 5:-0.090332031 6:0.73510742 
0.57521072406772955 0.15401818425623842 1:27.885496 2:-10.175573 3:1.3969466 4:1.0314941 5:-0.49023438 6:0.68017578 
0 1 1:1.6259542 2:-0.076335878 3:-0.51145038 4:1.0375977 5:0.0014648438 6:0.19189453 
0 1 1:0.022900763 2:-0.091603053 3:-0.61832061 4:1.048584 5:0.00024414063 6:0.22314453 
0.39914617859514556 0 1:4.4885496 2:3.8854962 3:0.13740458 4:1.0881348 5:0.085449219 6:0.62109375 
0.51515764899047811 0.138006306200426 1:14.694656 2:-3.8473282 3:0.90076336 4:1.0288086 5:-0.14013672 6:0.64746094 
0.66029367294264041 0.17754149787498782 1:26.740458 2:-13.854962 3:1.5572519 4:0.95507813 5:-0.30371094 6:0.58935547 
0.38186639878443379 0.10283376688625848 1:23.236641 2:-0.92366412 3:-0.053435115 4:1.0861816 5:-0.47485352 6:-0.24926758 
0 1 1:0.06870229 2:-0.11450382 3:-0.30534351 4:1.0419922 5:-0.01171875 6:0.1940918 
0 0.64132709256778198 1:1.6259542 2:-0.076335878 3:-0.33587786 4:1.0490723 5:-0.0026855469 6:0.20996094 
0.43186682920472125 0.11265582016955533 1:9.1068702 2:-1.4427481 3:1.8473282 4:0.90917969 5:0.18554688 6:0.66333008 
0.31309601827439465 0.083513653534907667 1:19.29771 2:1.1908397 3:0.38931298 4:0.57104492 5:-0.40625 6:1.2666016 
0.42050612352472405 0.11330936559813004 1:26.687023 2:-1.3358779 3:-0.89312977 4:0.79370117 5:-0.5222168 6:0.56103516 
0.1850567007586835 0.050143599635010395 1:19.854962 2:1.8625954 3:-0.44274809 4:1.0541992 5:-0.30688477 6:-0.015869141 
0.52509148135540862 0.14092274129489701 1:13.48855 2:-0.32824427 3:-0.75572519 4:1.0310059 5:-0.15356445 6:-0.13037109 
0 1 1:1.5419847 2:0.030534351 3:-0.21374046 4:1.050293 5:-0.010253906 6:0.21289063 
0 1 1:0.0076335878 2:-0.1221374 3:-0.19847328 4:1.0327148 5:0.015136719 6:0.26196289 
0.17113607465808139 0.098322381717368457 1:4.4274809 2:4.5343511 3:0.11450382 4:1.119873 5:0.057128906 6:0.39990234 
0.58289737693375332 0.15619678397727277 1:21.618321 2:3.1068702 3:1.2748092 4:0.86303711 5:-0.15112305 6:0.48901367 
1 1 1:-0.51908397 2:0.038167939 3:-0.35114504 4:1.0615234 5:0.012207031 6:0.24023438 
1 1 1:-0.18320611 2:1.9083969 3:-0.045801527 4:1.0473633 5:0.0009765625 6:0.22290039 
0.14767518850105918 1 1:0.06870229 2:1.9236641 3:-0.19847328 4:1.0371094 5:-0.012207031 6:0.24072266 
0 1 1:1.3206107 2:0.54961832 3:-0.52671756 4:1.017334 5:0.024902344 6:0.32666016 
0.22374457364943956 0.071485321435069915 1:10.183206 2:-1.7175573 3:0.33587786 4:1.0361328 5:0.01953125 6:0.51123047 
0.074057698672285704 0.020472804069995156 1:26.175573 2:-11.267176 3:1.5877863 4:0.77001953 5:-0.28271484 6:0.84619141 
0.27237741317774478 0.072689146420069295 1:24.503817 2:-1.7938931 3:0.25954198 4:0.97192383 5:-0.53515625 6:-0.0085449219 
0.21905334761685083 0.043910929989899344 1:8.1374046 2:-1.8167939 3:-0.41984733 4:1.0588379 5:-0.076416016 6:0.010009766 
0.62067872009798408 1 1:-0.20610687 2:-1.9389313 3:-0.053435115 4:1.0551758 5:-0.0078125 6:0.18945313 
0 1 1:1.1145038 2:0.78625954 3:-0.55725191 4:1.0583496 5:0.024658203 6:0.44335938 
0.49486393228134778 0.13291091842577124 1:26.320611 2:0.90839695 3:-0.6870229 4:0.83251953 5:-0.40795898 6:-0.066894531 
0.20808577010334803 0.05564074253016757 1:16.129771 2:0.030534351 3:-0.5648855 4:1.0187988 5:-0.26147461 6:0.010986328 
0.19356157796434229 0.026720065398351523 1:8.9694656 2:-0.14503817 3:-0.33587786 4:1.0527344 5:-0.095214844 6:-0.034423828 
0.33439673000984227 0 1:4.3969466 2:0.18320611 3:-0.54961832 4:1.0336914 5:-0.033447266 6:0.096191406 
0 1 1:0.045801527 2:-0.10687023 3:-0.49618321 4:1.0498047 5:-0.0051269531 6:0.21630859 
1 1 1:-0.44274809 2:-1.9236641 3:-0.35877863 4:1.0480957 5:-0.0048828125 6:0.21801758 
0.56120730882995573 0.17470239096156168 1:2.1145038 2:5.2290076 3:-1.1984733 4:1.0429688 5:0.022216797 6:0.42553711 
0.49143096253567575 0.13268497467964857 1:15.778626 2:1.5954198 3:0.69465649 4:0.8671875 5:-0.17993164 6:0.51855469 
0.63821789742246937 0.17135565363225808 1:25.007634 2:-9.8015267 3:3.3816794 4:1.232666 5:-0.43774414 6:0.24023438 
0.2724642057938661 0.073155756491635679 1:20.450382 2:0.36641221 3:-0.06870229 4:1.2121582 5:-0.31933594 6:0.0085449219 
0.23597369053277481 0.11189444064760427 1:7.4656489 2:-0.32824427 3:-0.35114504 4:1.0412598 5:-0.091064453 6:-0.028564453 
0.19758029948909639 0 1:4.1374046 2:-0.14503817 3:-0.45801527 4:1.0187988 5:-0.038330078 6:0.097412109 
0 1 1:0.64885496 2:-0.015267176 3:-0.22137405 4:1.0444336 5:-0.0078125 6:0.16015625 
1 1 1:-1.9389313 2:1.740458 3:-0.3129771 4:1.0617676 5:0.053222656 6:0.19067383 
0 1 1:1.740458 2:-1.7480916 3:-0.45801527 4:1.0561523 5:0.0012207031 6:0.24951172 
0 1 1:1.5648855 2:-0.022900763 3:-0.25954198 4:1.050293 5:-0.0046386719 6:0.20263672 
-0 1 1:-2.740458 2:0.015267176 3:-0.32824427 4:1.0441895 5:-0.038574219 6:0.0078125 
-0.23217184746008071 0.061086124163269785 1:-9.4656489 2:-0.20610687 3:-0.52671756 4:1.0744629 5:-0.080566406 6:-0.031982422 
-0.93088041489355022 0.25343651245646975 1:-23.389313 2:0.26717557 3:-0.4351145 4:1.0498047 5:-0.33984375 6:0.15307617 
-0.80009153714076964 0.21806819905639557 1:-15.114504 2:-1.9312977 3:-0.3129771 4:1.0478516 5:-0.10791016 6:0.58740234 
-0.1972077336684889 0 1:-7.6412214 2:-0.90839695 3:-0.19847328 4:1.0437012 5:-0.009765625 6:0.45556641 
-1 1 1:-1.8473282 2:-0.083969466 3:-0.27480916 4:1.034668 5:-0.0034179688 6:0.21679688 
-1 1 1:-1.0152672 2:1.8778626 3:-0.33587786 4:1.0622559 5:-0.0056152344 6:0.18115234 
-1 1 1:-1.1755725 2:-1.8778626 3:-0.21374046 4:1.0615234 5:-0.014160156 6:0.12109375 
-0.35996918709615899 0 1:-6.5114504 2:0.22900763 3:-0.24427481 4:1.0441895 5:-0.050537109 6:-0.059814453 
-0.55020076114935834 0.1491804200106972 1:-13.89313 2:0.70229008 3:-0.46564885 4:1.0473633 5:-0.16088867 6:-0.076171875 
-0.80360295380594149 0.21868175723566316 1:-20.969466 2:-0.29007634 3:1.7328244 4:1.0754395 5:-0.30786133 6:-0.0078125 
-0.70052611094074024 0.18928964372105112 1:-11.320611 2:0.42748092 3:-2.6030534 4:0.35180664 5:-0.019775391 6:0.82592773 
-0 0.39719533140307822 1:-3.5114504 2:0.24427481 3:-0.41984733 4:1.0505371 5:-0.047363281 6:-0.055664063 
-0.73790667921771003 0.2004458170057436 1:-21.328244 2:-1.9160305 3:-0.50381679 4:1.0161133 5:-0.30883789 6:0.234375 
-0.23194237624845809 0.064146695767733547 1:-12.335878 2:-0.85496183 3:-0.32061069 4:1.7751465 5:-0.08203125 6:1.1186523 
-1 1 1:-1.740458 2:-0.053435115 3:-1.8854962 4:1.048584 5:-0.0073242188 6:0.21630859 
-0.57983333345093446 0 1:-4.7480916 2:1.9236641 3:-0.41221374 4:1.0400391 5:-0.036865234 6:-0.049560547 
-0.021195201689996133 0.0056372383271660201 1:-16.648855 2:-0.28244275 3:-0.25954198 4:1.048584 5:-0.18896484 6:0.013427734 
-0.12710120260164606 0.032107471351531636 1:-19.091603 2:1.778626 3:-1.0076336 4:1.1411133 5:-0.2121582 6:0.40307617 
-0.85456727653696907 0.22845131583159245 1:-11.122137 2:-2.3053435 3:0.076335878 4:0.9831543 5:-0.045898438 6:0.56518555 
-0.44304940439701618 0.1205388829762136 1:-18.022901 2:-0.46564885 3:-0.51908397 4:1.0380859 5:-0.22265625 6:0.063232422 
-0.31675288544451963 0.086607598984218659 1:-16.198473 2:0.1221374 3:-0.69465649 4:1.0397949 5:-0.20336914 6:0.57788086 
-0.79373983676184923 0.16733508699565361 1:-4.6183206 2:-2.1450382 3:-0.26717557 4:0.93334961 5:-0.077636719 6:0.1796875 
-0.4325487828737013 0.206700316487237 1:-7.8778626 2:-0.83969466 3:-0.35877863 4:1.0214844 5:0 6:0.53393555 
-0 1 1:-3.1221374 2:-0.18320611 3:-0.091603053 4:1.0344238 5:0.0029296875 6:0.26953125 
-1 1 1:-2.648855 2:1.9465649 3:-0.35877863 4:1.0534668 5:-0.001953125 6:0.19140625 
-0.7718997951001686 0.21095684781963231 1:-11.374046 2:2.1908397 3:-1.389313 4:1.0493164 5:-0.12255859 6:-0.10644531 
-0.84959271669083281 0.23361255558568583 1:-19.10687 2:1.7480916 3:-1.4885496 4:1.0471191 5:-0.28881836 6:0.043945313 
-1 -0 1:0.015267176 2:1.7557252 3:-0.65648855 4:1.1987305 5:0.073486328 6:0.22753906 
-1 -0 1:-0.13740458 2:-1.9236641 3:-0.25954198 4:1.0812988 5:-0.00390625 6:0.25634766 
-1 -1 1:-1.9236641 2:1.8854962 3:-0.48091603 4:1.0546875 5:0.014160156 6:0.22387695 
-0.13136681287406313 -0 1:-0.27480916 2:-1.9312977 3:-0.11450382 4:1.0300293 5:-0.012451172 6:0.21459961 
-1 -0 1:-0.13740458 2:-1.8473282 3:-0.2519084 4:1.0439453 5:-0.00073242188 6:0.24047852 
-1 -0 1:0.045801527 2:-0.038167939 3:-0.38167939 4:1.0512695 5:0.0061035156 6:0.23217773 
-0 -1 1:-1.9160305 2:-0.045801527 3:-0.46564885 4:1.059082 5:0.0034179688 6:0.22680664 
-0.095136072682443076 -0.33568249732175964 1:-0.42748092 2:1.9083969 3:-0.091603053 4:1.0454102 5:-0.011474609 6:0.23535156 
-1 -0 1:1.6564885 2:-0.053435115 3:-0.32061069 4:1.045166 5:-0.0061035156 6:0.23120117 
-1 -0.32245485136595031 1:0.022900763 2:-0.053435115 3:-1.7709924 4:1.0334473 5:-0.0078125 6:0.21948242 
-0 -0.74303723962610624 1:-1.8549618 2:-0.053435115 3:-0.48854962 4:1.0461426 5:-0.00048828125 6:0.23168945 
-1 -1 1:-0.29007634 2:1.9465649 3:-0.34351145 4:1.0500488 5:-0.0026855469 6:0.22290039 
-0 -0.93643915180526549 1:-1.9007634 2:-0.0076335878 3:-0.19847328 4:1.0534668 5:-0.00048828125 6:0.2409668 
-1 -0 1:1.5572519 2:-0.06870229 3:-0.51908397 4:1.0327148 5:-0.001953125 6:0.23095703 
-1 -0 1:-0.0076335878 2:-0.015267176 3:-0.076335878 4:1.046875 5:0.010742188 6:0.24194336 
-0 -1 1:-1.9312977 2:-0.0076335878 3:-0.30534351 4:1.0424805 5:-0.0024414063 6:0.22412109 
-1 -1 1:-1.8473282 2:-1.9160305 3:-0.28244275 4:1.0456543 5:-0.0012207031 6:0.23681641 
-1 -0 1:1.6259542 2:-0.083969466 3:-0.22900763 4:1.045166 5:-0.00048828125 6:0.22094727 
-1 -0 1:0.12977099 2:-0.0076335878 3:-0.19847328 4:1.0461426 5:0.0078125 6:0.23095703 
-1 -0.66819642396279266 1:0.1221374 2:-1.9465649 3:-0.26717557 4:1.0483398 5:0.014648438 6:0.21606445 
-0.99039880243947931 -0 1:-0.015267176 2:-0.061068702 3:-0.12977099 4:1.0505371 5:-0.009765625 6:0.22045898 
-1 -0.81410632453815657 1:1.7175573 2:-0.12977099 3:-0.41221374 4:1.0427246 5:-0.0065917969 6:0.23364258 
-0.7634129332517855 -0 1:0.045801527 2:-0.015267176 3:-0.45801527 4:1.0341797 5:-0.0048828125 6:0.22509766 
-0 -0.22356132655900252 1:-0.38931298 2:-1.9389313 3:-0.72519084 4:1.0341797 5:-0.0065917969 6:0.22143555 
-1 -0 1:-0.20610687 2:1.8320611 3:-0.45038168 4:1.0500488 5:0.0051269531 6:0.21411133 
-0 -1 1:-1.9083969 2:-0.083969466 3:-0.21374046 4:1.0603027 5:-0.0012207031 6:0.23413086 
-1 -0 1:-0.32061069 2:1.9236641 3:-0.21374046 4:1.0463867 5:-0.0043945313 6:0.23217773 
-1 -0 1:0.030534351 2:0.015267176 3:-0.19083969 4:1.0319824 5:0.0014648438 6:0.2199707 
-1 -0 1:0.083969466 2:-0.022900763 3:-0.5648855 4:1.0471191 5:-0.0065917969 6:0.21582031 
